-0.0148098
0.0222044
0.065714
-0.0812329
0.0185372
-0.0283947
0.00173312
-0.0305499
-0.00563672
0.0280623
-0.0312861
0.0302021
-0.00704045
-0.0197415
0.0229468
-0.0356734
-0.00977687
0.0287319
-0.0385087
-0.0899268
-0.0643819
0.0704361
0.000662207
0.0604309
0.0423686
-0.0187399
-0.0155144
-0.0193576
0.0267476
0.00752239
-0.0105017
-0.00484384
0.0283421
-0.0339999
-0.0112131
0.0395619
0.00314525
0.0364166
0.0193546
0.0193546
0.0141252
0.0118851
0.00224015
0.0152836
0.0170782
0.0451163
0.0805741
-0.0165035
-0.0205825
0.01646
-0.0146219
0.011874
0.0172966
-0.0222468
0.043407
0.042569
-0.0222663
0.0482219
0.00313785
-0.0300758
-0.0268187
0.0431581
-0.0573788
-0.00519696
-0.0733437
0.0454986
-0.0431628
0.0729512
0.0344182
0.00254071
-0.0423769
0
0
-0.0153224
0.0168823
0.0169773
0
0
0.040547
0.0169773
0.0185372
0
0
-0.032846
-0.00439357
0.00884483
-0.0182366
0.0123921
-0.024736
-0.000617315
-0.0277774
0.0147269
0.0176184
-0.0181254
0.00224015
0.00173312
0.00173312
0.0237509
0.00299459
-0.00126147
0.00173312
0
0
0.0176184
0.0176184
0
0
-0.0305499
0.0176184
0
-0.0363621
-0.0145782
0.0257967
-0.0162891
0.0106524
-0.0363621
0.00224015
0.011085
0.0137652
0.0356437
0.00939588
0.0352037
-0.0165035
0.0237509
0.00299459
-0.0194981
-0.0165035
0.0182986
0.021661
-0.00753578
0.01646
0.0193546
0.0371846
0.0424173
0.0169773
0.021661
-0.005201
0.0141252
0.0152836
-0.00339856
0.00224015
