-0.028150117
0.031754896
0.049880728
-0.045185175
0.013582094
-0.011195787
0.010163249
-0.037511755
0.018327096
0.010785301
-0.010808205
0.029686823
-0.005057517
-0.0145614045
0.009062805
-0.020257097
-0.015300613
-0.003058435
-0.008565516
-0.061874837
-0.031293172
0.03518552
-0.034207325
0.03759165
0.024104964
-0.026372142
0.008171781
0.02300259
-0.025927069
0.011549124
-2.9215994E-4
-0.018821884
0.03226193
-0.008066317
-0.010559701
0.018805062
-0.008023548
0.0047933985
0.010469525
-0.0019210477
0.014518902
0.0024012162
-0.0020676053
0.011195893
0.0037909043
0.022657048
0.030678475
-0.017791351
-0.010271315
-0.0027013123
-0.0054183486
-0.0031391268
-0.005999528
-0.024564432
0.030121867
0.07970502
-0.046932027
0.059801705
0.040592063
-0.07394778
-0.044194832
0.019909292
-0.077876955
0.020626022
-0.060002916
0.059859972
-0.028378624
0.15381113
0.053164266
0.012150137
-0.021230554
0.010869247
0.010869247
-0.018590549
0.032380767
0.018598242
0.010869247
0.010869247
0.040184136
0.018598242
0.013582094
0.010869247
0.010869247
-0.02522667
0.015419137
0.0028524518
-0.013539148
0.018624188
-0.023394112
0.006271998
-0.009087309
0.009486973
0.022998612
-0.0031906308
0.015926108
0.010163249
0.010163249
0.032205816
0.008692759
0.013403968
0.010163249
0.010869247
0.010869247
0.022998612
0.022998612
0.010869247
0.010869247
-0.037511755
0.022998612
0.010869247
-0.023844888
0.013652246
0.022219462
-0.019926311
0.040429614
-0.023844888
0.015926108
0.0059257606
0.014789144
0.042498562
-0.008032337
0.03196615
-0.008693394
0.032205816
0.008692759
-0.0061286846
-0.008693394
0.024085576
0.03276062
0.0021638507
0.008574036
0.010469525
0.02967468
0.052986644
0.018598242
0.03276062
-0.005346869
0.014518902
0.011195893
-0.0083676055
-0.0020676053